/*!
 * The following copyright notice may not be removed under any circumstances.
 * 
 * Copyright:
 * © 1998 Digital Graphic Labs - All Rights Reserved
 * 
 * Trademark:
 * (204) 589-4345
 */
Cufon.registerFont({"w":300,"face":{"font-family":"chancur","font-weight":400,"font-stretch":"normal","units-per-em":"1024","panose-1":"2 11 6 0 5 3 2 2 2 4","ascent":"819","descent":"-205","x-height":"11","cap-height":"62","bbox":"-474.455 -811.832 952.992 361.057","underline-thickness":"0","underline-position":"0","unicode-range":"U+0020-U+201D"},"glyphs":{" ":{},"a":{"d":"204,-395v-43,-5,-87,-6,-110,21v-53,63,-82,163,-78,274v1,17,6,40,21,43v62,-49,92,-139,131,-212v5,-47,23,-87,36,-126xm132,-424v49,-55,152,-18,245,-26v-19,21,-45,40,-64,61v-27,7,-60,-19,-67,6r-49,185v-9,45,-27,113,7,140v37,7,48,-34,71,-52r39,-72v2,1,5,1,5,3v-10,48,-36,71,-62,105v-24,32,-49,69,-98,78v-67,-24,-20,-139,-14,-201v-35,67,-76,130,-121,187v-11,14,-42,35,-51,6v-40,-133,14,-298,97,-363","w":345},"b":{"d":"157,-721v32,-12,26,28,23,57r-97,309v41,-30,67,-78,117,-99v103,160,-56,349,-155,442v-20,18,-68,38,-78,0v-28,-103,21,-203,49,-295r92,-297v4,-26,6,-54,0,-79v10,-19,32,-26,49,-38xm156,-194v21,-44,37,-191,-16,-194v-87,54,-129,184,-118,316v15,40,64,2,80,-14r22,-23v7,-31,19,-58,32,-85","w":247},"c":{"d":"319,-380v-13,22,-33,36,-58,44v-38,-31,-78,-88,-149,-63v-68,53,-112,182,-76,295v14,42,72,68,121,44v34,-17,60,-38,80,-67v-10,57,-96,117,-159,137v-181,7,-120,-299,-38,-369v19,-17,39,-35,64,-46v28,-42,119,-71,165,-27v17,16,41,27,50,52","w":334},"d":{"d":"210,-317v27,-55,-38,-106,-86,-73v-62,69,-124,213,-90,334v7,26,35,-5,46,-16v43,-39,74,-93,105,-144xm252,-447r61,-208v4,-27,-10,-40,14,-55v21,-13,59,-48,62,2r-134,430v-14,65,-47,161,-11,222v58,17,93,-65,124,-104v2,1,5,2,5,4v-36,59,-81,111,-132,155v-18,17,-62,16,-69,-13v-11,-49,-5,-114,1,-163v-40,70,-92,135,-157,180v-39,27,-59,-21,-57,-64v8,-196,90,-311,219,-385v23,-13,51,-10,74,-1","w":408},"e":{"d":"44,8v-112,29,-87,-147,-67,-235v25,-110,81,-185,173,-227v80,2,35,115,4,140v-32,41,-80,66,-120,99v-20,53,-23,174,45,166v91,-11,127,-93,175,-154v-11,69,-95,122,-139,168v-19,20,-42,35,-71,43xm129,-359v3,-25,-22,-56,-38,-31v-26,42,-49,93,-53,154v49,-20,83,-64,91,-123","w":243},"g":{"d":"-222,232v72,39,221,70,293,6v55,-112,90,-246,100,-403r-61,74v-40,35,-66,86,-123,103v-55,-23,-23,-137,-12,-194v24,-126,100,-211,200,-262v50,-25,132,-6,200,-7r-54,47r-32,2r-47,230r-16,108v-37,181,-110,332,-270,385v-83,28,-183,-4,-240,-39v4,-28,38,-38,62,-50xm227,-400v-28,4,-63,2,-91,5v-73,69,-113,177,-113,312v0,16,6,38,19,41v72,-31,96,-113,143,-169r29,-140v4,-17,8,-33,13,-49","w":363},"h":{"d":"111,-379v53,-15,74,-92,144,-71v19,11,36,33,29,64v-22,101,-73,187,-84,296v4,23,33,32,50,13v29,-32,57,-65,83,-100r10,5r-58,70v-30,30,-55,69,-91,92v-42,26,-58,-25,-47,-70v22,-90,59,-169,73,-266v8,-51,-66,-60,-93,-27v-53,64,-61,171,-94,255v-10,27,0,69,-16,91v-17,12,-30,39,-56,37v-8,-98,32,-172,55,-261r95,-361v9,-26,1,-53,-3,-78v17,-16,40,-26,60,-40v30,0,21,58,14,84","w":360},"i":{"d":"33,-531v15,-35,54,-73,90,-39v18,9,41,27,18,46v-16,26,-55,48,-83,18v-10,-6,-20,-14,-25,-25xm178,-168r9,5v-46,59,-96,116,-156,161v-30,23,-78,13,-72,-29v19,-123,71,-215,95,-332v-1,-24,-12,-55,10,-63v15,-10,36,-41,58,-22v16,99,-46,170,-67,256v-10,41,-45,100,-17,140v38,11,58,-33,87,-47","w":196},"j":{"d":"217,-506r-39,-50r12,-24v17,-9,25,-26,54,-23r42,39r-4,27v-19,13,-33,31,-65,31xm-318,196v98,44,299,84,342,-36v55,-154,89,-327,139,-482v9,-28,24,-53,17,-88v10,-24,38,-33,60,-46v33,4,10,45,4,66r-127,443v-22,69,-60,121,-116,157v-56,68,-172,113,-291,75v-30,-9,-63,-16,-88,-30v0,-32,31,-51,60,-59"},"k":{"d":"-42,-25v41,-236,149,-421,170,-671v16,-16,37,-38,66,-33v28,60,-16,127,-33,188r-39,140v40,-16,70,-55,118,-55v46,0,48,56,18,81v-38,32,-85,59,-126,89v39,71,71,149,115,214v17,25,50,37,80,18v5,-2,9,-3,15,-2v-24,40,-108,93,-159,43v-54,-53,-73,-140,-116,-205v-14,60,-38,109,-39,182v-16,20,-35,42,-65,48v-5,-8,-4,-23,-5,-37xm87,-275v45,-31,110,-45,122,-108v-8,-43,-75,-13,-93,2v-14,31,-19,70,-29,106","w":361},"l":{"d":"39,-148v-19,45,-25,130,44,98v32,-26,66,-58,89,-93v4,-2,8,3,6,7v-39,59,-89,108,-154,142v-41,22,-72,-23,-61,-65r165,-611v-12,-38,25,-46,48,-61v44,-1,16,66,7,95","w":208},"m":{"d":"116,-451v30,-8,26,43,21,72v41,-18,63,-72,122,-63v25,10,34,40,29,77v42,-26,67,-69,120,-83v72,15,20,113,4,156r-51,137v-5,37,-37,81,-16,113v77,-15,110,-96,159,-142v11,11,-15,24,-20,36v-59,60,-103,135,-187,169v-35,-1,-22,-52,-13,-77r90,-271v9,-23,15,-63,-16,-64v-89,24,-100,127,-137,203r-24,72v-9,27,-11,56,-16,84v-13,16,-30,33,-47,46v-12,9,-17,-1,-15,-14v18,-130,94,-209,104,-343v4,-61,-79,-41,-93,-6v-38,98,-95,192,-107,310v-19,17,-31,51,-63,49v5,-143,91,-248,109,-386v-17,-42,21,-58,47,-75","w":534},"n":{"d":"8,-147v24,-84,82,-156,61,-259v9,-23,33,-30,51,-44v39,-3,30,64,22,97v56,-28,79,-90,150,-102v71,12,29,107,12,151r-68,182v-14,31,-20,93,28,78v45,-14,63,-63,90,-98v4,0,6,1,8,3v-33,57,-79,103,-130,143v-25,20,-83,13,-73,-25r19,-75r69,-184v9,-36,39,-91,1,-114v-54,-7,-85,47,-120,74r-88,215v-15,50,-26,104,-78,117v-11,-57,31,-107,46,-159","w":380},"o":{"d":"96,-400v55,-62,162,-72,162,48v0,147,-73,228,-149,302v-34,20,-55,58,-102,61v-103,-66,-21,-286,30,-351v17,-23,40,-39,59,-60xm135,-408v-71,47,-97,151,-109,254v-5,42,5,88,30,106v98,-26,136,-144,136,-262v0,-50,-17,-85,-57,-98","w":271},"q":{"d":"265,-402r-116,0v-78,73,-121,186,-131,324v3,13,7,31,23,29v108,-66,176,-181,201,-331v10,-6,17,-12,23,-22xm253,-45v23,1,17,32,16,52v-12,138,-78,226,-185,270v-81,11,-41,-90,-24,-138r108,-292v-51,54,-96,115,-160,155v-18,12,-48,16,-48,-15v0,-225,100,-359,245,-441r196,0r-63,52r-29,0v-30,158,-106,273,-154,415v-19,57,-55,113,-55,178v0,51,60,28,70,-1v17,-51,34,-113,28,-183v5,-30,30,-42,55,-52","w":421},"r":{"d":"92,-330v55,-65,143,-164,250,-107v-7,27,-29,40,-50,54v-43,-14,-94,-16,-132,7v-89,54,-114,173,-136,292v4,21,16,52,-4,64v-15,9,-25,28,-44,32v-45,-77,19,-183,34,-263v9,-46,29,-95,18,-151v10,-25,35,-41,62,-48v31,24,6,83,2,120","w":329},"t":{"d":"20,14v-68,24,-64,-80,-48,-136r86,-300r-87,-1r63,-57r42,0v16,-68,48,-131,46,-208v19,-18,43,-35,72,-42v27,51,-17,128,-34,183r-18,59r101,0r-65,62r-58,0r-72,228v-13,47,-38,132,16,151v48,-2,61,-52,88,-80v26,-27,44,-66,62,-101v20,3,1,28,-5,40v-33,66,-88,112,-134,165v-15,17,-32,29,-55,37","w":255},"u":{"d":"222,-288v30,-58,17,-163,96,-166v23,8,7,38,0,58r-66,181v-12,49,-36,95,-32,153v2,31,51,16,64,2r46,-50v16,-17,28,-39,46,-54v2,1,9,1,8,4v-39,63,-93,109,-150,153v-18,14,-61,37,-74,5v-19,-44,5,-97,10,-141v-43,55,-90,105,-149,144v-32,21,-71,6,-61,-39v27,-125,84,-215,106,-342v-1,-13,-13,-29,2,-37v19,-12,32,-33,57,-37v32,62,-18,127,-38,181r-56,155v-13,27,-17,84,29,68v62,-22,81,-85,123,-125","w":404},"v":{"d":"105,-143v48,-74,131,-167,92,-274v13,-22,36,-34,65,-39v57,76,-21,185,-63,241r-47,63r-70,73r-71,60v-17,10,-29,24,-49,31v-4,-126,40,-262,44,-390v-6,-18,-26,-37,-4,-49v17,-9,39,-39,60,-20v35,67,-6,166,-17,245r-20,146v31,-20,59,-55,80,-87","w":298},"w":{"d":"255,-456v32,-1,14,52,7,72r-80,224v-9,36,-27,126,32,102v54,-22,45,-99,80,-140v28,-63,42,-141,44,-227v19,-14,37,-34,64,-39v24,94,-34,207,-69,284v-19,43,-46,81,-81,106v-38,27,-59,71,-113,83v-38,-9,-31,-73,-26,-111v-39,41,-70,91,-127,114v-61,-25,0,-126,8,-176v13,-79,50,-139,55,-230v-22,-29,28,-46,51,-60v41,60,-18,155,-36,219r-45,156v4,52,46,20,63,-4v60,-84,96,-194,124,-311v-13,-37,27,-46,49,-62","w":430},"y":{"d":"-4,12v-59,0,-34,-87,-21,-130r74,-244v9,-38,-15,-58,25,-74v14,-11,44,-31,49,1v-16,131,-78,217,-100,341v-8,44,38,64,73,39v48,-35,83,-83,118,-130r74,-209v-9,-34,30,-44,50,-60v37,-1,17,54,8,78r-56,156r-60,214v-27,82,-69,149,-139,187v-57,63,-225,97,-311,35v-3,-31,33,-38,56,-50v71,38,226,48,273,-20v52,-75,58,-199,96,-289r-115,110v-25,21,-52,45,-94,45","w":380},"x":{"d":"292,-433v22,-28,89,-32,128,-17v5,12,-13,19,-19,28v-14,19,-35,33,-63,22v-77,-6,-100,42,-134,79v6,51,2,115,8,168v6,47,6,125,60,104v39,-15,54,-61,77,-95v4,-2,6,7,6,13v-25,54,-69,88,-113,123v-11,9,-26,14,-45,13v-59,-7,-44,-91,-52,-151r-92,103v-31,38,-97,70,-159,44v-15,-21,22,-41,31,-60v36,6,107,12,133,-15v33,-24,56,-58,85,-86v-9,-76,2,-172,-29,-226v-8,-15,-24,-21,-40,-13v-1,-19,43,-55,73,-55v51,0,46,69,55,116","w":443},"f":{"d":"16,-401r41,-1r46,-178v18,-66,38,-130,96,-157v37,-34,112,-57,169,-25v24,13,51,27,71,44v-6,25,-38,31,-54,48v-41,0,-60,-56,-112,-56v-14,0,-29,-7,-43,-3v-63,82,-67,220,-105,327r111,0r-54,55r-73,0r-48,224v-22,108,-67,196,-156,237v-59,76,-215,98,-330,58v-18,-6,-60,-5,-47,-35v15,-17,36,-35,64,-35v78,26,192,57,278,16v10,-5,21,-7,32,-10v92,-102,98,-287,136,-442v1,-6,1,-11,0,-13v-26,-2,-51,3,-77,-1","w":350},"p":{"d":"51,-398v9,-25,70,-67,85,-21r-15,85r145,-114v9,-8,26,-8,31,2v23,94,18,243,-35,298v-31,31,-58,66,-88,98v-35,36,-79,65,-151,62v-64,170,-166,323,-404,308v-19,-7,-59,-3,-52,-31v16,-30,51,-45,91,-28v80,11,181,8,216,-42v102,-147,118,-380,186,-561v2,-20,-2,-41,-9,-56xm231,-381v-16,-34,-47,9,-61,21r-54,45r-73,237v-12,46,58,34,92,26v113,-27,108,-191,96,-329","w":326},"z":{"d":"167,-265v33,-41,49,-159,-37,-139v-15,4,-32,26,-46,16v37,-41,135,-103,188,-34v30,102,-57,176,-115,230r-164,153v114,5,209,62,181,183v-16,71,-78,110,-132,149v-53,72,-221,91,-308,37v-3,-33,33,-41,54,-57v58,8,113,51,186,26r63,-13v57,-38,89,-157,31,-218v-33,-35,-90,-65,-159,-49v-3,-26,17,-29,29,-41r112,-106r66,-68v20,-23,33,-46,51,-69","w":294},"s":{"d":"-2,-83v51,53,254,61,206,-59v-39,-55,-92,-97,-132,-150v-10,-13,-10,-49,0,-62r81,-63v37,-37,123,-50,175,-14v6,25,-33,33,-45,52v-34,9,-94,-44,-143,-7v-14,50,41,82,67,114v41,35,104,100,55,170v-58,84,-225,160,-333,72v5,-24,32,-35,46,-52v6,-5,16,-7,23,-1","w":346},"A":{"d":"388,-383v10,-75,19,-161,17,-245r-111,245r94,0xm381,-683v-94,20,-233,-21,-306,36v-40,58,-56,138,-69,222v-17,14,-30,36,-48,49v13,-106,32,-202,96,-258v51,-44,84,-96,193,-96r230,0r-53,636v-11,66,55,66,84,28v27,-36,60,-70,83,-110v1,-2,3,-3,5,-3v-34,78,-91,142,-163,183v-67,38,-66,-61,-65,-118v1,-75,11,-143,16,-214r-114,-1v-62,119,-111,250,-226,317v-82,87,-291,161,-420,58r61,-47v62,72,245,56,317,4v105,-76,155,-207,214,-328v-35,3,-84,-10,-104,11v-9,4,-17,26,-25,15v35,-38,56,-90,137,-81v5,0,11,-1,17,-2","w":627},"B":{"d":"-62,-650v-32,61,-45,166,-28,252v-14,17,-23,33,-40,48v-21,0,-18,-34,-20,-52v-20,-149,45,-245,135,-302v73,-46,215,-22,332,-25r-22,81v48,-23,81,-70,143,-77v55,-6,63,70,30,106v-35,39,-86,76,-137,105v224,11,268,380,74,457v-35,26,-69,54,-119,66r-170,3v-55,-1,-108,-6,-157,-13v25,-25,54,-45,86,-63v89,-120,107,-322,160,-480r39,-132v-98,-9,-240,-19,-306,26xm388,-565v28,-23,68,-105,6,-119v-47,5,-72,37,-105,57r-35,140v43,-27,95,-47,134,-78xm456,-135v42,-176,-32,-339,-202,-329v-35,21,-38,78,-49,119v-33,125,-63,246,-165,300r125,13v129,6,266,2,291,-103","w":602},"C":{"d":"538,-601v14,25,-30,36,-49,48v-56,-84,-140,-174,-289,-140v-104,109,-171,262,-184,461v-10,147,128,253,260,176v52,-29,91,-75,131,-116r3,6v-61,69,-131,152,-226,182v-159,50,-251,-121,-215,-295v34,-162,89,-301,185,-397v52,-52,168,-92,259,-45v54,28,96,70,125,120","w":570},"D":{"d":"405,-681v-21,-6,-27,16,-41,24r-102,91r-48,244v-23,122,-63,224,-161,271v-3,12,19,7,29,11v85,10,181,-1,272,1v90,-55,100,-200,100,-334v0,-116,-20,-221,-49,-308xm-160,-377r-14,-5v-1,-127,24,-229,100,-280v37,-50,92,-68,190,-68r202,0v3,18,-13,18,-22,27r-29,117r112,-96v26,-19,46,-45,76,-58v98,178,92,592,-61,687r-85,65r-341,0r-9,-9v34,-41,84,-62,130,-90v79,-164,90,-400,144,-589r-143,-4v-61,-1,-113,7,-157,26v-42,52,-51,139,-51,233","w":574},"E":{"d":"230,-382v-30,-11,-72,-12,-90,14v-3,-1,-9,-2,-8,-7v32,-32,51,-69,113,-65r31,-136v8,-44,34,-74,57,-104r-201,10v-62,27,-58,143,-44,216v-10,21,-30,63,-53,50v-33,-100,1,-230,71,-269v19,-21,31,-51,67,-52r470,-13r-56,52r-225,7v-39,63,-47,157,-67,239r184,3r-43,52v-49,5,-104,4,-151,-2r-20,88v-20,80,-48,149,-109,188v-22,24,-49,38,-76,57v0,3,1,8,4,9r457,0v48,-5,74,-37,88,-76v-2,55,-71,118,-136,122r-157,10r-364,-7v-12,1,-18,-6,-8,-14v46,-57,132,-66,190,-111v39,-70,56,-171,76,-261","w":675},"F":{"d":"-64,-376v-23,7,-17,-33,-17,-52v0,-138,84,-208,163,-271v114,-56,316,-22,492,-34v24,4,63,-7,76,7v-11,18,-28,30,-42,45r-269,5v-37,58,-46,150,-69,223r128,5r-54,50r-86,2r-47,214v-22,69,-77,111,-121,158v-63,67,-210,111,-313,47v-12,-8,-34,-10,-32,-29v13,-17,30,-37,49,-44v3,3,4,8,8,9v66,31,170,67,248,19v127,-47,116,-231,151,-371r-96,-5r46,-47r67,-3v21,-84,35,-175,89,-226v-43,3,-88,-1,-131,-1v-159,0,-219,97,-198,251v-8,22,-26,35,-42,48","w":463},"G":{"d":"515,50v1,-2,6,-3,9,-2v-4,52,-51,89,-86,108v-95,51,-207,-7,-294,-27v-6,-57,90,-67,113,-116v27,-56,42,-138,47,-216v-59,75,-120,150,-196,208v-147,55,-167,-180,-142,-334v24,-145,83,-261,176,-340v55,-24,101,-82,183,-59v73,20,121,65,148,131v-5,22,-32,33,-48,45v-18,-2,-21,-31,-34,-44v-35,-61,-114,-110,-210,-82v-112,105,-181,279,-161,496v7,71,34,165,120,136v73,-47,129,-114,173,-190r38,-148v-49,5,-114,-12,-139,20v-8,11,-17,23,-28,31v-10,-12,17,-23,22,-37v30,-42,65,-70,143,-70r184,0v-18,19,-28,53,-63,54r-64,2r-73,317v-23,63,-81,98,-128,138v55,34,141,46,219,57v52,-3,81,-31,91,-78","w":559},"H":{"d":"-25,-403v-23,5,-16,-32,-16,-49v0,-100,32,-159,88,-209v46,-97,213,-64,352,-70v-68,62,-66,194,-102,289r170,6v29,-130,48,-268,157,-319v37,-36,95,-71,164,-51v-10,36,-55,49,-109,44v-113,12,-117,145,-141,238r-102,400v-7,28,-15,74,15,79v78,-29,103,-122,153,-177v5,23,-33,59,-45,84v-42,54,-85,111,-145,146v-79,8,-33,-118,-18,-174r57,-212r-171,-7r-26,109v-26,95,-59,186,-124,241v-54,46,-106,96,-204,93v-45,-1,-94,-12,-113,-42v11,-26,32,-45,56,-59v7,0,3,18,8,22v72,53,219,26,253,-39v47,-91,63,-222,96,-329v-57,-2,-114,-2,-139,33v-6,3,-16,25,-21,12v39,-44,65,-103,154,-98v8,0,16,-1,23,-3r60,-231r-165,4r-87,13v-27,55,-52,134,-33,212v6,25,-28,31,-45,44","w":680},"I":{"d":"38,-222v-18,17,-44,62,-68,45v-44,-282,115,-474,328,-556r-124,481v-33,99,-66,198,-137,259v-76,66,-229,116,-343,55r-42,-17v-3,0,-3,-4,-3,-6v12,-22,33,-41,66,-38v79,42,221,62,303,6v94,-130,125,-333,167,-509r44,-184v-124,69,-214,197,-214,372v0,30,1,61,6,88v2,4,16,0,17,4","w":272},"J":{"d":"236,-720v137,-27,308,1,461,-1r-41,49r-94,0r-107,-5r-121,465v-37,125,-126,208,-250,244v-87,25,-180,-4,-226,-51v-8,-44,44,-51,69,-74r-16,19v46,65,188,82,273,40v76,-37,86,-139,109,-225r112,-421v-89,6,-204,-22,-243,44v-10,8,-13,29,-30,26v30,-39,64,-81,104,-110","w":581},"K":{"d":"74,-688v49,-64,169,-44,265,-46r132,-3v-68,49,-68,164,-97,252v114,-40,207,-105,230,-235v16,-10,43,-42,62,-20v-15,145,-136,194,-247,245v94,105,83,314,165,431v14,20,52,35,74,12v14,-9,24,-27,38,-35v13,12,-18,23,-24,35v-29,34,-95,94,-140,42v-90,-103,-79,-307,-159,-420v-5,-5,-10,-7,-15,-8v-37,148,-48,321,-160,395v-48,32,-113,80,-192,54v-42,-14,-83,-34,-119,-55v-2,-26,41,-57,64,-38v65,32,160,75,240,34v76,-115,78,-302,125,-446r36,-124v3,-23,33,-52,18,-68v-100,7,-213,1,-303,18v-48,57,-65,180,-37,270v-11,17,-32,61,-54,38v-32,-119,-7,-271,82,-310v4,-5,10,-10,16,-18","w":736},"L":{"d":"562,-614v14,20,-41,60,-59,37v-48,-60,-126,-134,-233,-101v-56,144,-51,356,-103,508v-19,56,-61,94,-105,130r405,45v82,11,154,-4,190,-51v1,-1,2,-1,3,0v-46,70,-141,109,-260,98r-438,-40v10,-31,45,-49,82,-54v108,-89,86,-308,129,-467v16,-59,19,-132,68,-160v38,-46,118,-80,193,-49v53,22,96,61,128,104","w":694},"M":{"d":"453,-650r5,509r217,-556v21,-10,31,-33,59,-33v4,2,6,6,4,14v-43,190,-49,414,-58,638v-1,55,59,21,78,3v33,-32,62,-69,84,-110v12,5,-5,20,-9,31v-43,66,-100,129,-173,164v-51,-1,-42,-93,-38,-149r24,-359r-123,306v-19,47,-48,83,-59,138v-17,20,-34,44,-61,53v-17,-156,-8,-346,-15,-517v-84,178,-89,436,-254,533v-41,69,-180,85,-270,51v-15,-23,26,-39,41,-56v45,7,103,28,161,14v43,-10,76,-20,94,-58v92,-193,144,-436,223,-644v-101,1,-217,-12,-296,15v-55,67,-71,174,-77,288v-13,13,-20,37,-42,37v-32,-122,22,-272,105,-328v61,-98,250,-62,401,-61","w":890},"N":{"d":"-136,-352v-47,-106,11,-245,79,-298v39,-31,60,-78,131,-80r229,-5r-11,34r43,413r27,163r56,-297r31,-128v22,-120,110,-176,206,-223v22,-6,65,-9,89,-1v1,22,-30,31,-49,42v-58,-4,-94,2,-129,23v-102,173,-94,459,-173,658v-12,30,-36,58,-74,63v-39,-158,-49,-351,-75,-523r-75,310v-13,64,-45,113,-91,145v-64,79,-209,127,-332,72v-14,-22,31,-37,44,-56v6,-5,11,-9,17,-13v4,4,-9,15,-3,21v66,29,186,35,237,-10v17,-23,46,-36,54,-67r131,-569r-159,-1v-39,1,-78,2,-99,24v-51,53,-79,162,-52,255v-7,24,-24,51,-52,48","w":583},"O":{"d":"381,-342v14,-166,-12,-366,-175,-342v-118,76,-189,211,-189,394v0,124,40,232,146,250v49,8,76,-30,103,-56v61,-59,106,-141,115,-246xm172,-680v44,-27,98,-73,164,-40v152,76,129,398,41,523v-58,81,-128,153,-219,202v-128,29,-189,-96,-198,-213v-16,-219,73,-388,212,-472","w":473},"P":{"d":"62,-688v67,-72,208,-32,341,-42r-35,124r147,-114v17,-11,31,-25,51,-33v68,112,0,313,-90,363v-37,47,-100,82,-185,71v-24,130,-59,250,-153,309v-43,56,-152,79,-228,36v-12,-7,-38,-6,-34,-24v15,-20,44,-53,72,-26v43,22,127,35,177,9v76,-62,79,-197,108,-301r98,-358v-92,6,-209,-18,-281,15v-28,51,-41,131,-26,205v-8,21,-25,37,-49,43v-2,0,-6,-1,-6,-4v-28,-101,4,-217,74,-254v6,-7,12,-13,19,-19xm520,-694v-16,-14,-33,13,-46,19r-110,87r-40,141v-7,28,-20,61,11,74v51,21,124,3,147,-33v42,-67,63,-191,38,-288","w":584},"Q":{"d":"349,-509v6,-114,-51,-222,-160,-166v-101,109,-158,270,-173,461v-7,87,31,183,115,166v14,-22,-45,-30,-31,-58v15,-17,41,-50,66,-24v11,11,22,24,33,36v87,-100,140,-235,150,-415xm182,-687v40,-41,154,-79,191,-16v120,209,-30,506,-161,622r47,73v48,55,70,150,173,139v41,-4,53,-48,74,-76v3,0,8,2,7,5v-34,58,-81,107,-164,116v-114,-22,-126,-149,-204,-207v-32,25,-83,64,-129,23v-101,-92,-42,-319,-3,-437v33,-101,85,-190,169,-242","w":489},"R":{"d":"-91,-447v0,31,-34,70,-58,53v-8,-123,19,-219,93,-268v42,-28,70,-67,146,-68r249,-2r-29,86v68,-27,109,-91,200,-87v65,3,32,89,5,115v-59,58,-133,99,-203,146r96,350v14,41,28,101,87,82v47,-15,69,-52,93,-92v1,-1,2,-1,3,0v-25,72,-84,128,-167,144v-79,-14,-82,-108,-104,-178v-27,-84,-41,-183,-75,-257r-39,172v-26,94,-66,182,-143,225v-45,57,-188,81,-257,31v-2,-13,17,-16,20,-25v9,-10,18,-27,36,-20v55,22,143,31,199,3v79,-106,98,-284,138,-426r44,-155v7,-24,15,-47,23,-68v-105,7,-229,-9,-310,24v-31,55,-47,127,-47,215xm305,-630r-50,170r74,-36v67,-40,141,-73,160,-160v-18,-72,-115,-18,-147,6v-11,9,-24,14,-37,20","w":622},"S":{"d":"454,-661v27,22,-18,49,-42,55v-60,-45,-155,-103,-256,-65v-16,29,-36,76,-4,102r55,79r65,81v43,58,95,113,106,198v11,87,-65,126,-110,173v-54,56,-193,68,-261,15v-18,-14,-47,-28,-47,-54v16,-15,30,-31,52,-40v55,56,184,113,272,45v38,-29,37,-98,12,-149v-61,-124,-157,-212,-221,-331v-20,-66,40,-97,78,-128v39,-32,96,-63,169,-44v51,13,96,34,132,63","w":488},"T":{"d":"128,4v90,1,94,-107,113,-179r84,-325r45,-145v7,-13,25,-23,34,-35r-269,3v-23,1,-43,3,-60,8v-51,67,-76,197,-49,304v-13,14,-27,51,-50,43v-43,-134,6,-296,93,-355v69,-91,271,-49,428,-53r145,2v26,0,52,-2,78,-4r-60,50r-226,6v-77,182,-94,423,-179,599v-20,42,-55,75,-107,88r85,52r-50,53r-106,-61","w":606},"U":{"d":"486,-652v-4,-46,14,-81,54,-77v6,4,15,10,12,19r-70,222r-87,256v-11,53,-30,99,-35,156v10,60,78,8,93,-14v31,-28,55,-61,81,-94r3,3v-47,66,-103,125,-165,175v-18,14,-46,28,-60,1v-28,-53,9,-119,17,-172r-87,89v-39,37,-82,84,-150,85v-94,-100,0,-288,36,-395r93,-278v-81,8,-197,-27,-253,16v-67,52,-82,163,-78,282v-13,17,-30,41,-52,44v-26,-139,35,-271,119,-334v33,-25,56,-62,112,-62r104,0r117,9v-25,30,-32,80,-46,121r-68,202r-54,178v-13,49,-34,157,32,157v58,0,81,-43,120,-67r60,-63","w":580},"V":{"d":"184,-686v-68,3,-147,-4,-206,8v-48,47,-62,135,-59,231v-9,23,-32,38,-53,49v-17,-82,3,-204,54,-245v45,-36,80,-90,164,-91r168,-3v-67,209,-93,459,-138,690v135,-123,245,-276,308,-469v17,-53,33,-130,14,-190v17,-13,36,-28,58,-34v49,252,-135,445,-258,596v-36,44,-79,83,-125,117v0,16,-16,15,-23,24v-12,6,-25,26,-40,17r116,-629","w":532},"W":{"d":"-40,-655v-46,47,-40,146,-36,227v-13,13,-39,54,-58,29v-17,-110,8,-221,82,-261v32,-34,60,-67,130,-68r270,-4r-39,38r-151,548v116,-169,205,-367,305,-552v20,-8,36,-23,59,-26r-88,376r-38,197v59,-101,108,-218,164,-321r58,-108v43,-85,124,-131,216,-164v36,-13,83,-2,116,7v15,20,-30,38,-55,43v-37,-19,-104,-17,-141,0v-158,174,-238,444,-368,649r0,15r-74,52r49,-276r56,-256r-283,463r0,12r-74,57r174,-637v8,-26,14,-47,20,-64r-75,2v-79,-1,-167,-9,-219,22","w":793},"X":{"d":"271,-678r-145,-3v-83,0,-160,11,-178,80v-15,54,-34,133,-12,191v2,15,10,27,10,41v-11,18,-22,39,-42,48v-19,-6,-15,-34,-25,-51v-26,-110,11,-241,88,-285v58,-89,216,-81,365,-76r-2,186r44,-64v50,-83,163,-166,299,-115v-14,36,-55,49,-109,41v-141,-20,-178,97,-237,180r5,409v5,26,15,57,40,62v61,-17,93,-67,127,-113v1,-1,6,2,4,4v-47,64,-93,132,-178,158v-91,-37,-55,-204,-55,-331v0,-15,1,-29,1,-44r-124,200v-54,84,-110,172,-245,172v-35,0,-75,0,-104,-10v-5,-101,157,-30,229,-71v118,-67,166,-206,244,-312r0,-297","w":636},"Y":{"d":"-32,-659v-52,65,-87,199,-48,307v-14,21,-29,45,-55,54v-41,-101,-12,-267,48,-325v49,-48,83,-109,187,-107r232,5v1,10,-16,16,-19,26r-129,435v-13,69,-61,165,-4,214v77,16,124,-68,176,-106r153,-466v14,-34,-3,-81,37,-94v12,-4,28,-21,39,-6v-12,149,-71,249,-111,374r-86,265r-55,191v-38,94,-115,158,-204,200v-104,49,-257,10,-321,-46v11,-23,42,-32,60,-49v66,57,219,105,315,43v111,-72,119,-250,163,-388v-66,46,-105,122,-196,144v-82,-7,-49,-152,-32,-211r136,-472r-162,-7v-48,0,-92,3,-124,19","w":574},"Z":{"d":"154,-658v63,-97,228,-65,366,-74r111,3v14,18,-26,35,-38,51r-297,408v-15,19,-31,36,-47,55v-57,66,-123,125,-198,173r438,10v56,-1,97,-13,119,-47v14,-14,28,-31,38,-50v-33,89,-123,149,-264,147r-421,-5v-3,-2,-2,-11,0,-13v255,-166,406,-434,581,-679r-195,-2v-71,1,-142,6,-188,31v-37,51,-71,110,-67,201v-10,22,-32,38,-54,47v-17,-7,-3,-36,-3,-56v0,-93,49,-164,119,-200","w":682},"1":{"d":"29,-199v41,-89,39,-222,135,-255v-29,137,-96,282,-140,411v-19,19,-35,43,-60,55v-10,-35,33,-88,38,-131","w":177},"2":{"d":"244,13r-282,-5v-3,-35,54,-57,78,-80r152,-142v39,-41,79,-78,90,-146v-6,-64,-101,-28,-137,-12v-29,22,-34,65,-45,104v-19,17,-34,37,-60,47v-15,-79,59,-130,106,-171v41,-36,124,-85,190,-49v50,90,-52,169,-108,218r-182,160v-3,5,-6,10,-8,15r268,5v-8,25,-44,38,-62,56","w":370},"3":{"d":"186,-290v105,6,156,143,70,213v-70,57,-217,135,-296,34v-2,-28,35,-37,56,-51v42,20,65,57,127,57v102,0,108,-136,43,-176v-20,-20,-55,-25,-80,-39v40,-57,161,-50,154,-148v-25,-30,-81,-5,-87,25v-2,7,-7,16,-13,19v-26,-1,-35,33,-60,22v25,-63,101,-82,156,-116v29,-10,79,-7,75,27v-10,81,-92,92,-145,133","w":348},"4":{"d":"-19,-151v4,-39,70,-62,94,-93v81,-66,124,-177,235,-210v5,70,-44,155,-60,225v-2,9,-6,16,-9,23v49,-2,100,-3,131,-24v-16,49,-83,78,-153,78v-8,38,-23,71,-25,114v-19,19,-37,36,-60,50v-23,-48,19,-114,28,-163r-135,-2xm233,-368v-16,1,-25,18,-35,28r-141,132r133,2v13,-54,34,-106,43,-162","w":392},"5":{"d":"217,-96v41,-61,-6,-144,-90,-122v-30,8,-64,10,-91,20r70,-216v28,-20,46,-40,105,-40r139,0v-19,18,-40,33,-60,50r-133,0r-47,148v82,-26,223,-24,188,86v-25,78,-93,121,-156,162v-58,37,-163,16,-184,-38v19,-14,37,-48,65,-39v38,29,107,61,161,27v6,-3,12,-6,19,-8","w":367},"6":{"d":"140,-413v35,-50,157,-54,190,1v-8,23,-40,30,-58,45v-19,1,-25,-21,-44,-24v-44,-23,-116,-7,-134,27v-29,35,-49,76,-60,128v58,-74,251,-116,251,35v0,76,-64,107,-105,150v-47,49,-179,101,-208,5v-51,-166,44,-315,168,-367xm168,-60v93,-34,53,-224,-64,-189v-30,9,-52,23,-76,37v-20,91,22,200,120,161v7,-2,12,-6,20,-9","w":347},"8":{"d":"146,-264v-34,-32,-66,-114,-2,-142v41,-33,144,-78,192,-19v-6,69,-67,97,-113,129v37,50,116,136,47,206v-50,50,-110,97,-205,102v-70,4,-125,-32,-101,-102v30,-87,109,-129,182,-174xm264,-354v20,-46,-27,-66,-76,-60v-45,29,8,90,27,112v25,-7,40,-30,49,-52xm153,-254v-61,36,-130,71,-130,158v0,95,197,82,207,4v11,-80,-45,-114,-77,-162","w":354},"9":{"d":"299,-270v-60,46,-117,111,-217,108v-62,-29,-36,-144,0,-181v42,-43,94,-89,158,-107v154,-43,155,224,76,312v-73,82,-206,191,-357,130v1,-27,29,-40,49,-52v78,30,200,21,240,-38v29,-44,56,-95,51,-172xm298,-287v-3,-66,-32,-117,-94,-123v-62,10,-79,71,-92,131v2,32,18,63,45,72v66,-6,109,-39,141,-80","w":391},"'":{"d":"55,-583v4,-45,6,-98,3,-145r54,-54r-3,145","w":234},"-":{"d":"209,-316r-53,54r-173,0r53,-54r173,0","w":219},".":{"d":"43,-67r-1,51r-52,53r0,-50","w":90},"\"":{"d":"55,-583v4,-45,6,-98,3,-145r54,-54r-3,145xm199,-583r3,-145r53,-54r-3,145","w":534},"\\":{"d":"44,-640r79,337r84,267r-49,48r-90,-291r-74,-310","w":320},":":{"d":"43,-361r-1,72r-52,54r0,-72xm43,-195r-1,72r-52,54r0,-72","w":135},"\u00a9":{"d":"308,-635v221,-36,360,102,334,319v-15,120,-103,187,-181,254v-75,65,-230,92,-343,40v-115,-53,-180,-266,-92,-391v69,-98,146,-200,282,-222xm124,-522v-64,71,-102,221,-46,332v58,115,235,187,380,109v15,-8,31,-16,46,-25v63,-63,93,-205,52,-315v-49,-131,-242,-207,-391,-123v-14,7,-28,14,-41,22xm268,-208v17,40,86,40,115,11r7,2v-39,42,-130,121,-180,35v-38,-117,9,-255,84,-308v20,-31,72,-50,105,-16v12,12,25,26,33,41r-54,52v-23,-26,-42,-62,-93,-56v-22,66,-50,162,-17,239","w":677},"\u201c":{"d":"122,-680v-9,20,-21,56,-8,81r-54,54v-18,-51,13,-98,46,-119xm45,-680v-10,20,-21,57,-8,81r-53,54v-21,-62,25,-107,61,-135","w":256},";":{"d":"43,-375r-1,72r-52,54r0,-72xm-22,-37v10,-18,22,-59,8,-81r53,-54v19,49,-13,99,-45,120","w":135},"\u2019":{"d":"-22,-545v10,-18,22,-58,8,-80r53,-55v23,61,-25,107,-61,135","w":94},"\u2018":{"d":"45,-680v-10,20,-21,57,-8,81r-53,54v-21,-62,25,-107,61,-135","w":94},"\/":{"d":"156,-640r51,51r-116,458r-49,143r-48,-48r62,-195r60,-229","w":320},"0":{"d":"180,-436v58,-43,134,-1,129,77v-9,135,-64,223,-146,283v-32,40,-71,73,-129,87v-88,-11,-55,-177,-30,-239v36,-89,102,-154,176,-208xm211,-159v37,-83,56,-286,-71,-231v-69,59,-109,164,-98,290v4,43,45,64,83,37v36,-25,66,-51,86,-96","w":333},",":{"d":"-22,39v10,-18,22,-57,8,-79r53,-54v20,48,-13,98,-45,118","w":90},"\u201d":{"d":"-22,-545v10,-18,22,-58,8,-80r53,-55v23,61,-25,107,-61,135xm54,-545v10,-18,22,-58,8,-80r55,-55v20,64,-25,107,-63,135","w":256},"\u00e0":{"d":"25,-172v-21,4,-32,-26,-13,-33v42,-3,101,-5,132,11v45,23,58,128,17,166v-25,23,-73,25,-123,25v-17,0,-37,-2,-36,-22v0,-12,12,-13,23,-14r0,-133xm59,-39v64,6,103,-11,94,-80v-5,-43,-41,-60,-94,-53r0,133xm362,-200v20,-23,31,3,31,25v-1,17,-3,32,-16,37v-27,-4,-14,-45,-57,-39v-73,-13,-85,76,-56,129v20,19,68,17,94,5r0,-24v-27,2,-72,1,-53,-29v18,-10,53,-3,79,-5v19,-2,33,20,16,30v-16,3,-5,34,-8,50v-75,48,-209,9,-175,-105v16,-56,74,-110,145,-74xm426,-177v-14,-13,-1,-31,17,-30v33,4,90,-13,96,17v-1,20,-22,19,-43,18r0,133r74,0v0,-23,-4,-55,17,-55v30,5,13,58,17,89r-161,0v-12,1,-23,-7,-23,-17v1,-19,22,-17,42,-17r0,-133v-14,0,-29,1,-36,-5","w":634},"7":{"d":"150,-396v-80,-13,-86,40,-80,109v-20,14,-31,46,-58,49v-24,-61,13,-120,52,-147v37,-26,55,-68,124,-68r202,-1r-144,173r-55,75v-31,49,-57,102,-64,175v-17,16,-31,37,-57,43v-22,-98,54,-197,107,-259r128,-151","w":338},"\u00a0":{}}});
